#include "./classes.h"

void gltable(int n, rl* glx, rl* glw){

  //Rather than recompute gauss legendre points and weights every time they
  //are needed, it will be faster to precompute them for small n.
  // Here, values for n<=50 were calculated using scipy

static rl x1[1]={ 0.000000000000000};
static rl w1[1]={ 2.000000000000000};

static rl x2[2]={-0.577350269189626,  0.577350269189626};
static rl w2[2]={ 1.000000000000000,  1.000000000000000};

static rl x3[3]={-0.774596669241484, -0.000000000000000,  0.774596669241483};
static rl w3[3]={ 0.555555555555556,  0.888888888888889,  0.555555555555555};

static rl x4[4]={-0.861136311594052, -0.339981043584856,  0.339981043584856,  0.861136311594052};
static rl w4[4]={ 0.347854845137454,  0.652145154862546,  0.652145154862546,  0.347854845137454};

static rl x5[5]={-0.906179845938664, -0.538469310105683,  0.000000000000000,  0.538469310105683,  0.906179845938663};
static rl w5[5]={ 0.236926885056188,  0.478628670499367,  0.568888888888888,  0.478628670499367,  0.236926885056189};

static rl x6[6]={-0.932469514203153, -0.661209386466265, -0.238619186083197,  0.238619186083197,  0.661209386466264,  0.932469514203152};
static rl w6[6]={ 0.171324492379170,  0.360761573048139,  0.467913934572691,  0.467913934572691,  0.360761573048139,  0.171324492379170};

static rl x7[7]={-0.949107912342759, -0.741531185599395, -0.405845151377398,  0.000000000000000,  0.405845151377397,  0.741531185599395,  0.949107912342758};
static rl w7[7]={ 0.129484966168869,  0.279705391489277,  0.381830050505118,  0.417959183673469,  0.381830050505119,  0.279705391489277,  0.129484966168869};

static rl x8[8]={-0.960289856497537, -0.796666477413627, -0.525532409916329, -0.183434642495650,  0.183434642495650,  0.525532409916329,  0.796666477413626,  0.960289856497537};
static rl w8[8]={ 0.101228536290376,  0.222381034453375,  0.313706645877886,  0.362683783378362,  0.362683783378362,  0.313706645877887,  0.222381034453374,  0.101228536290376};

static rl x9[9]={-0.968160239507626, -0.836031107326636, -0.613371432700590, -0.324253423403809, -0.000000000000000,  0.324253423403809,  0.613371432700590,  0.836031107326635,  0.968160239507626};
static rl w9[9]={ 0.081274388361575,  0.180648160694858,  0.260610696402935,  0.312347077040003,  0.330239355001260,  0.312347077040003,  0.260610696402936,  0.180648160694858,  0.081274388361574};

static rl x10[10]={-0.973906528517172, -0.865063366688984, -0.679409568299026, -0.433395394129248, -0.148874338981631,  0.148874338981631,  0.433395394129247,  0.679409568299025,  0.865063366688985,  0.973906528517173};
static rl w10[10]={ 0.066671344308688,  0.149451349150579,  0.219086362515984,  0.269266719309997,  0.295524224714752,  0.295524224714753,  0.269266719309997,  0.219086362515981,  0.149451349150581,  0.066671344308688};

static rl x11[11]={-0.978228658146055, -0.887062599768094, -0.730152005574049, -0.519096129206812, -0.269543155952345, -0.000000000000000,  0.269543155952345,  0.519096129206812,  0.730152005574049,  0.887062599768095,  0.978228658146056};
static rl w11[11]={ 0.055668567116174,  0.125580369464905,  0.186290210927734,  0.233193764591991,  0.262804544510247,  0.272925086777900,  0.262804544510246,  0.233193764591991,  0.186290210927735,  0.125580369464905,  0.055668567116173};

static rl x12[12]={-0.981560634246718, -0.904117256370475, -0.769902674194303, -0.587317954286616, -0.367831498998180, -0.125233408511469,  0.125233408511469,  0.367831498998180,  0.587317954286617,  0.769902674194306,  0.904117256370475,  0.981560634246719};
static rl w12[12]={ 0.047175336386511,  0.106939325995321,  0.160078328543345,  0.203167426723065,  0.233492536538355,  0.249147045813403,  0.249147045813402,  0.233492536538355,  0.203167426723065,  0.160078328543346,  0.106939325995320,  0.047175336386511};

static rl x13[13]={-0.984183054718588, -0.917598399222977, -0.801578090733310, -0.642349339440341, -0.448492751036447, -0.230458315955135, -0.000000000000000,  0.230458315955135,  0.448492751036447,  0.642349339440340,  0.801578090733310,  0.917598399222978,  0.984183054718589};
static rl w13[13]={ 0.040484004765317,  0.092121499837727,  0.138873510219788,  0.178145980761945,  0.207816047536889,  0.226283180262898,  0.232551553230874,  0.226283180262897,  0.207816047536889,  0.178145980761945,  0.138873510219786,  0.092121499837729,  0.040484004765316};

static rl x14[14]={-0.986283808696812, -0.928434883663572, -0.827201315069767, -0.687292904811686, -0.515248636358155, -0.319112368927890, -0.108054948707344,  0.108054948707344,  0.319112368927890,  0.515248636358154,  0.687292904811686,  0.827201315069765,  0.928434883663575,  0.986283808696813};
static rl w14[14]={ 0.035119460331752,  0.080158087159760,  0.121518570687903,  0.157203167158193,  0.185538397477940,  0.205198463721297,  0.215263853463158,  0.215263853463158,  0.205198463721295,  0.185538397477938,  0.157203167158193,  0.121518570687902,  0.080158087159762,  0.035119460331753};

static rl x15[15]={-0.987992518020484, -0.937273392400704, -0.848206583410427, -0.724417731360169, -0.570972172608538, -0.394151347077564, -0.201194093997434,  0.000000000000000,  0.201194093997434,  0.394151347077563,  0.570972172608538,  0.724417731360170,  0.848206583410427,  0.937273392400705,  0.987992518020486};
static rl w15[15]={ 0.030753241996116,  0.070366047488107,  0.107159220467174,  0.139570677926152,  0.166269205816996,  0.186161000015563,  0.198431485327112,  0.202578241925561,  0.198431485327112,  0.186161000015563,  0.166269205816993,  0.139570677926154,  0.107159220467171,  0.070366047488110,  0.030753241996117};

static rl x16[16]={-0.989400934991650, -0.944575023073232, -0.865631202387833, -0.755404408355003, -0.617876244402644, -0.458016777657227, -0.281603550779259, -0.095012509837638,  0.095012509837637,  0.281603550779259,  0.458016777657228,  0.617876244402644,  0.755404408355004,  0.865631202387833,  0.944575023073232,  0.989400934991650};
static rl w16[16]={ 0.027152459411754,  0.062253523938647,  0.095158511682493,  0.124628971255534,  0.149595988816577,  0.169156519395002,  0.182603415044924,  0.189450610455069,  0.189450610455068,  0.182603415044924,  0.169156519395003,  0.149595988816578,  0.124628971255535,  0.095158511682493,  0.062253523938648,  0.027152459411755};

static rl x17[17]={-0.990575475314419, -0.950675521768768, -0.880239153726985, -0.781514003896802, -0.657671159216691, -0.512690537086477, -0.351231763453876, -0.178484181495848, -0.000000000000000,  0.178484181495848,  0.351231763453876,  0.512690537086477,  0.657671159216691,  0.781514003896801,  0.880239153726984,  0.950675521768766,  0.990575475314416};
static rl w17[17]={ 0.024148302868550,  0.055459529373985,  0.085036148317177,  0.111883847193405,  0.135136368468526,  0.154045761076811,  0.168004102156449,  0.176562705366994,  0.179446470356206,  0.176562705366993,  0.168004102156450,  0.154045761076811,  0.135136368468526,  0.111883847193406,  0.085036148317178,  0.055459529373988,  0.024148302868546};

static rl x18[18]={-0.991565168420930, -0.955823949571395, -0.892602466497553, -0.803704958972522, -0.691687043060353, -0.559770831073948, -0.411751161462843, -0.251886225691505, -0.084775013041735,  0.084775013041735,  0.251886225691505,  0.411751161462843,  0.559770831073948,  0.691687043060353,  0.803704958972523,  0.892602466497556,  0.955823949571397,  0.991565168420931};
static rl w18[18]={ 0.021616013526486,  0.049714548894969,  0.076425730254888,  0.100942044106288,  0.122555206711477,  0.140642914670651,  0.154684675126266,  0.164276483745833,  0.169142382963144,  0.169142382963144,  0.164276483745832,  0.154684675126265,  0.140642914670651,  0.122555206711477,  0.100942044106286,  0.076425730254890,  0.049714548894970,  0.021616013526483};

static rl x19[19]={-0.992406843843584, -0.960208152134831, -0.903155903614817, -0.822714656537142, -0.720966177335229, -0.600545304661681, -0.464570741375960, -0.316564099963630, -0.160358645640225, -0.000000000000000,  0.160358645640226,  0.316564099963630,  0.464570741375961,  0.600545304661681,  0.720966177335229,  0.822714656537143,  0.903155903614819,  0.960208152134830,  0.992406843843585};
static rl w19[19]={ 0.019461788229727,  0.044814226765699,  0.069044542737640,  0.091490021622451,  0.111566645547335,  0.128753962539337,  0.142606702173607,  0.152766042065860,  0.158968843393955,  0.161054449848784,  0.158968843393955,  0.152766042065860,  0.142606702173606,  0.128753962539337,  0.111566645547333,  0.091490021622451,  0.069044542737642,  0.044814226765699,  0.019461788229727};

static rl x20[20]={-0.993128599185096, -0.963971927277914, -0.912234428251327, -0.839116971822219, -0.746331906460152, -0.636053680726516, -0.510867001950828, -0.373706088715420, -0.227785851141646, -0.076526521133497,  0.076526521133497,  0.227785851141645,  0.373706088715420,  0.510867001950827,  0.636053680726514,  0.746331906460151,  0.839116971822219,  0.912234428251326,  0.963971927277915,  0.993128599185098};
static rl w20[20]={ 0.017614007139153,  0.040601429800386,  0.062672048334110,  0.083276741576704,  0.101930119817240,  0.118194531961521,  0.131688638449177,  0.142096109318383,  0.149172986472604,  0.152753387130726,  0.152753387130727,  0.149172986472604,  0.142096109318382,  0.131688638449177,  0.118194531961518,  0.101930119817241,  0.083276741576705,  0.062672048334109,  0.040601429800386,  0.017614007139153};

static rl x21[21]={-0.993752170620389, -0.967226838566307, -0.920099334150401, -0.853363364583318, -0.768439963475679, -0.667138804197412, -0.551618835887220, -0.424342120207439, -0.288021316802401, -0.145561854160896, -0.000000000000000,  0.145561854160896,  0.288021316802401,  0.424342120207439,  0.551618835887220,  0.667138804197413,  0.768439963475677,  0.853363364583317,  0.920099334150400,  0.967226838566308,  0.993752170620391};
static rl w21[21]={ 0.016017228257772,  0.036953789770855,  0.057134425426858,  0.076100113628380,  0.093444423456033,  0.108797299167146,  0.121831416053731,  0.132268938633337,  0.139887394791074,  0.144524403989970,  0.146081133649690,  0.144524403989970,  0.139887394791074,  0.132268938633338,  0.121831416053729,  0.108797299167148,  0.093444423456034,  0.076100113628379,  0.057134425426858,  0.036953789770853,  0.016017228257774};

static rl x22[22]={-0.994294585482400, -0.970060497835429, -0.926956772187176, -0.865812577720303, -0.787816805979210, -0.694487263186684, -0.587640403506912, -0.469355837986757, -0.341935820892085, -0.207860426688221, -0.069739273319722,  0.069739273319722,  0.207860426688222,  0.341935820892086,  0.469355837986757,  0.587640403506912,  0.694487263186683,  0.787816805979209,  0.865812577720300,  0.926956772187175,  0.970060497835429,  0.994294585482401};
static rl w22[22]={ 0.014627995298272,  0.033774901584815,  0.052293335152684,  0.069796468424520,  0.085941606217069,  0.100414144442879,  0.112932296080540,  0.123252376810512,  0.131173504787063,  0.136541498346015,  0.139251872855632,  0.139251872855632,  0.136541498346015,  0.131173504787062,  0.123252376810513,  0.112932296080540,  0.100414144442881,  0.085941606217069,  0.069796468424520,  0.052293335152684,  0.033774901584813,  0.014627995298272};

static rl x23[23]={-0.994769334997553, -0.972542471218115, -0.932971086826014, -0.876752358270440, -0.804888401618839, -0.718661363131951, -0.619609875763645, -0.509501477846008, -0.390301038030291, -0.264135680970344, -0.133256824298467, -0.000000000000000,  0.133256824298466,  0.264135680970345,  0.390301038030290,  0.509501477846008,  0.619609875763645,  0.718661363131951,  0.804888401618840,  0.876752358270441,  0.932971086826016,  0.972542471218116,  0.994769334997553};
static rl w23[23]={ 0.013411859487142,  0.030988005856981,  0.048037671731082,  0.064232421408525,  0.079281411776720,  0.092915766060034,  0.104892091464542,  0.114996640222411,  0.123049084306728,  0.128905722188082,  0.132462039404696,  0.133654572186106,  0.132462039404696,  0.128905722188082,  0.123049084306730,  0.114996640222412,  0.104892091464541,  0.092915766060035,  0.079281411776720,  0.064232421408525,  0.048037671731085,  0.030988005856980,  0.013411859487142};

static rl x24[24]={-0.995187219997021, -0.974728555971308, -0.938274552002732, -0.886415527004400, -0.820001985973903, -0.740124191578553, -0.648093651936976, -0.545421471388839, -0.433793507626045, -0.315042679696164, -0.191118867473616, -0.064056892862606,  0.064056892862605,  0.191118867473616,  0.315042679696163,  0.433793507626046,  0.545421471388840,  0.648093651936977,  0.740124191578555,  0.820001985973904,  0.886415527004401,  0.938274552002733,  0.974728555971309,  0.995187219997020};
static rl w24[24]={ 0.012341229799988,  0.028531388628934,  0.044277438817420,  0.059298584915435,  0.073346481411080,  0.086190161531952,  0.097618652104115,  0.107444270115966,  0.115505668053727,  0.121670472927804,  0.125837456346827,  0.127938195346753,  0.127938195346752,  0.125837456346828,  0.121670472927803,  0.115505668053726,  0.107444270115966,  0.097618652104115,  0.086190161531953,  0.073346481411080,  0.059298584915437,  0.044277438817420,  0.028531388628932,  0.012341229799988};

static rl x25[25]={-0.995556969790499, -0.976663921459518, -0.942974571228973, -0.894991997878275, -0.833442628760835, -0.759259263037359, -0.673566368473470, -0.577662930241224, -0.473002731445715, -0.361172305809388, -0.243866883720989, -0.122864692610710,  0.000000000000000,  0.122864692610711,  0.243866883720989,  0.361172305809387,  0.473002731445715,  0.577662930241222,  0.673566368473468,  0.759259263037358,  0.833442628760834,  0.894991997878275,  0.942974571228973,  0.976663921459517,  0.995556969790498};
static rl w25[25]={ 0.011393798501028,  0.026354986615031,  0.040939156701303,  0.054904695975836,  0.068038333812357,  0.080140700335003,  0.091028261982963,  0.100535949067051,  0.108519624474264,  0.114858259145710,  0.119455763535784,  0.122242442990309,  0.123176053726715,  0.122242442990309,  0.119455763535785,  0.114858259145712,  0.108519624474263,  0.100535949067050,  0.091028261982964,  0.080140700335000,  0.068038333812357,  0.054904695975834,  0.040939156701307,  0.026354986615030,  0.011393798501027};

static rl x26[26]={-0.995885701145616, -0.978385445956470, -0.947159066661714, -0.902637861984307, -0.845445942788497, -0.776385948820678, -0.696427260419956, -0.606692293017616, -0.508440714824505, -0.403051755123486, -0.292004839485957, -0.176858820356890, -0.059230093429313,  0.059230093429313,  0.176858820356890,  0.292004839485956,  0.403051755123486,  0.508440714824506,  0.606692293017618,  0.696427260419958,  0.776385948820679,  0.845445942788498,  0.902637861984308,  0.947159066661713,  0.978385445956472,  0.995885701145619};
static rl w26[26]={ 0.010551372617340,  0.024417851092635,  0.037962383294363,  0.050975825297150,  0.063274046329575,  0.074684149765658,  0.085045894313487,  0.094213800355913,  0.102059161094425,  0.108471840528577,  0.113361816546320,  0.116660443485296,  0.118321415279261,  0.118321415279263,  0.116660443485296,  0.113361816546319,  0.108471840528577,  0.102059161094426,  0.094213800355914,  0.085045894313486,  0.074684149765660,  0.063274046329574,  0.050975825297149,  0.037962383294360,  0.024417851092635,  0.010551372617342};

static rl x27[27]={-0.996179262888989, -0.979923475961501, -0.950900557814704, -0.909482320677491, -0.856207908018294, -0.791771639070508, -0.717013473739425, -0.632907971946495, -0.540551564579457, -0.441148251750027, -0.335993903638509, -0.226459365439537, -0.113972585609530, -0.000000000000000,  0.113972585609530,  0.226459365439536,  0.335993903638509,  0.441148251750027,  0.540551564579456,  0.632907971946495,  0.717013473739424,  0.791771639070508,  0.856207908018295,  0.909482320677490,  0.950900557814704,  0.979923475961499,  0.996179262888988};
static rl w27[27]={ 0.009798996051293,  0.022686231596185,  0.035297053757417,  0.047449412520613,  0.058983536859835,  0.069748823766249,  0.079604867773056,  0.088423158543757,  0.096088727370027,  0.102501637817746,  0.107578285788533,  0.111252488356846,  0.113476346108965,  0.114220867378957,  0.113476346108966,  0.111252488356845,  0.107578285788533,  0.102501637817746,  0.096088727370029,  0.088423158543756,  0.079604867773058,  0.069748823766244,  0.058983536859835,  0.047449412520614,  0.035297053757419,  0.022686231596181,  0.009798996051294};

static rl x28[28]={-0.996442497573953, -0.981303165370871, -0.954259280628937, -0.915633026392130, -0.865892522574392, -0.805641370917179, -0.735610878013631, -0.656651094038866, -0.569720471811402, -0.475874224955118, -0.376251516089078, -0.272061627635179, -0.164569282133381, -0.055079289884034,  0.055079289884034,  0.164569282133380,  0.272061627635178,  0.376251516089079,  0.475874224955118,  0.569720471811402,  0.656651094038866,  0.735610878013633,  0.805641370917180,  0.865892522574396,  0.915633026392132,  0.954259280628938,  0.981303165370873,  0.996442497573955};
static rl w28[28]={ 0.009124282593094,  0.021132112592771,  0.032901427782302,  0.044272934759003,  0.055107345675717,  0.065272923967001,  0.074646214234569,  0.083113417228902,  0.090571744393034,  0.096930657997929,  0.102112967578060,  0.106055765922848,  0.108711192258294,  0.110047013016475,  0.110047013016475,  0.108711192258294,  0.106055765922846,  0.102112967578061,  0.096930657997930,  0.090571744393031,  0.083113417228902,  0.074646214234569,  0.065272923967000,  0.055107345675717,  0.044272934759004,  0.032901427782301,  0.021132112592773,  0.009124282593095};

static rl x29[29]={-0.996679442260596, -0.982545505261413, -0.957285595778088, -0.921180232953058, -0.874637804920102, -0.818185487615253, -0.752462851734476, -0.678214537602686, -0.596281797138229, -0.507592955124228, -0.413152888174008, -0.314031637867640, -0.211352286166001, -0.106278230132679,  0.000000000000000,  0.106278230132679,  0.211352286166002,  0.314031637867640,  0.413152888174009,  0.507592955124228,  0.596281797138228,  0.678214537602687,  0.752462851734477,  0.818185487615254,  0.874637804920104,  0.921180232953059,  0.957285595778088,  0.982545505261414,  0.996679442260599};
static rl w29[29]={ 0.008516903878746,  0.019732085056123,  0.030740492202093,  0.041402062518681,  0.051594826902497,  0.061203090657080,  0.070117933255052,  0.078238327135766,  0.085472257366174,  0.091737757139260,  0.096963834094407,  0.101091273759914,  0.104073310077730,  0.105876155097321,  0.106479381718314,  0.105876155097321,  0.104073310077729,  0.101091273759915,  0.096963834094409,  0.091737757139259,  0.085472257366172,  0.078238327135763,  0.070117933255052,  0.061203090657081,  0.051594826902497,  0.041402062518683,  0.030740492202094,  0.019732085056121,  0.008516903878747};

static rl x30[30]={-0.996893484074650, -0.983668123279747, -0.960021864968308, -0.926200047429275, -0.882560535792054, -0.829565762382769, -0.767777432104827, -0.697850494793316, -0.620526182989244, -0.536624148142020, -0.447033769538089, -0.352704725530878, -0.254636926167890, -0.153869913608584, -0.051471842555317,  0.051471842555318,  0.153869913608583,  0.254636926167890,  0.352704725530879,  0.447033769538089,  0.536624148142021,  0.620526182989243,  0.697850494793316,  0.767777432104825,  0.829565762382769,  0.882560535792051,  0.926200047429273,  0.960021864968306,  0.983668123279747,  0.996893484074649};
static rl w30[30]={ 0.007968192496167,  0.018466468311090,  0.028784707883324,  0.038799192569630,  0.048402672830592,  0.057493156217618,  0.065974229882181,  0.073755974737706,  0.080755895229419,  0.086899787201084,  0.092122522237787,  0.096368737174645,  0.099593420586795,  0.101762389748405,  0.102852652893558,  0.102852652893559,  0.101762389748406,  0.099593420586795,  0.096368737174645,  0.092122522237786,  0.086899787201085,  0.080755895229422,  0.073755974737705,  0.065974229882179,  0.057493156217619,  0.048402672830594,  0.038799192569626,  0.028784707883323,  0.018466468311094,  0.007968192496166};

static rl x31[31]={-0.997087481819478, -0.984685909665152, -0.962503925092950, -0.930756997896650, -0.889760029948272, -0.839920320146267, -0.781733148416624, -0.715776784586854, -0.642706722924260, -0.563249161407151, -0.478193782044904, -0.388385901608234, -0.294718069981701, -0.198121199335571, -0.099555312152342, -0.000000000000000,  0.099555312152342,  0.198121199335571,  0.294718069981702,  0.388385901608233,  0.478193782044903,  0.563249161407149,  0.642706722924261,  0.715776784586855,  0.781733148416625,  0.839920320146268,  0.889760029948270,  0.930756997896647,  0.962503925092949,  0.984685909665152,  0.997087481819479};
static rl w31[31]={ 0.007470831579249,  0.017318620790313,  0.027009019184979,  0.036432273912386,  0.045493707527202,  0.054103082424915,  0.062174786561026,  0.069628583235411,  0.076390386598775,  0.082392991761589,  0.087576740608481,  0.091890113893642,  0.095290242912319,  0.097743335386329,  0.099225011226673,  0.099720544793427,  0.099225011226672,  0.097743335386329,  0.095290242912319,  0.091890113893641,  0.087576740608479,  0.082392991761590,  0.076390386598777,  0.069628583235411,  0.062174786561028,  0.054103082424918,  0.045493707527200,  0.036432273912386,  0.027009019184981,  0.017318620790308,  0.007470831579250};

static rl x32[32]={-0.997263861849481, -0.985611511545268, -0.964762255587507, -0.934906075937739, -0.896321155766052, -0.849367613732572, -0.794483795967942, -0.732182118740290, -0.663044266930215, -0.587715757240763, -0.506899908932231, -0.421351276130636, -0.331868602282127, -0.239287362252137, -0.144471961582796, -0.048307665687738,  0.048307665687739,  0.144471961582796,  0.239287362252138,  0.331868602282128,  0.421351276130636,  0.506899908932230,  0.587715757240763,  0.663044266930216,  0.732182118740290,  0.794483795967942,  0.849367613732570,  0.896321155766053,  0.934906075937741,  0.964762255587506,  0.985611511545270,  0.997263861849484};
static rl w32[32]={ 0.007018610009470,  0.016274394730905,  0.025392065309261,  0.034273862913023,  0.042835898022229,  0.050998059262375,  0.058684093478535,  0.065822222776363,  0.072345794108847,  0.078193895787073,  0.083311924226948,  0.087652093004404,  0.091173878695763,  0.093844399080805,  0.095638720079275,  0.096540088514728,  0.096540088514728,  0.095638720079276,  0.093844399080805,  0.091173878695764,  0.087652093004404,  0.083311924226946,  0.078193895787071,  0.072345794108850,  0.065822222776361,  0.058684093478537,  0.050998059262375,  0.042835898022227,  0.034273862913023,  0.025392065309263,  0.016274394730906,  0.007018610009468};

static rl x33[33]={-0.997424694246455, -0.986455726230643, -0.966822909689993, -0.938694372611169, -0.902316767743435, -0.858009652676505, -0.806162356274166, -0.747230496449563, -0.681731959969742, -0.610242345836379, -0.533389904786346, -0.451850017272451, -0.366339257748073, -0.277609097152497, -0.186439298827992, -0.093631065854734,  0.000000000000000,  0.093631065854733,  0.186439298827991,  0.277609097152498,  0.366339257748073,  0.451850017272451,  0.533389904786348,  0.610242345836380,  0.681731959969742,  0.747230496449562,  0.806162356274167,  0.858009652676504,  0.902316767743434,  0.938694372611169,  0.966822909689993,  0.986455726230643,  0.997424694246454};
static rl w33[33]={ 0.006606227847588,  0.015321701512933,  0.023915548101750,  0.032300358632328,  0.040401541331672,  0.048147742818714,  0.055470846631662,  0.062306482530321,  0.068594572818654,  0.074279854843956,  0.079312364794888,  0.083647876067039,  0.087248287618845,  0.090081958660639,  0.092123986643319,  0.093356426065596,  0.093768446160210,  0.093356426065596,  0.092123986643318,  0.090081958660638,  0.087248287618846,  0.083647876067039,  0.079312364794886,  0.074279854843955,  0.068594572818657,  0.062306482530318,  0.055470846631663,  0.048147742818713,  0.040401541331668,  0.032300358632330,  0.023915548101749,  0.015321701512935,  0.006606227847587};

static rl x34[34]={-0.997571753790842, -0.987227816406309, -0.968708262533345, -0.942162397405109, -0.907809677718325, -0.865934638334565, -0.816884227900935, -0.761064876629872, -0.698939113216263, -0.631021727080529, -0.557875500669748, -0.480106545190327, -0.398359277758645, -0.313311081339463, -0.225666691616449, -0.136152357259183, -0.045509821953103,  0.045509821953103,  0.136152357259183,  0.225666691616449,  0.313311081339464,  0.398359277758646,  0.480106545190327,  0.557875500669747,  0.631021727080529,  0.698939113216263,  0.761064876629873,  0.816884227900934,  0.865934638334565,  0.907809677718326,  0.942162397405108,  0.968708262533346,  0.987227816406310,  0.997571753790844};
static rl w34[34]={ 0.006229140555905,  0.014450162748595,  0.022563721985495,  0.030491380638448,  0.038166593796388,  0.045525611523355,  0.052507414572679,  0.059054135827522,  0.065111521554078,  0.070629375814255,  0.075561974660033,  0.079868444339770,  0.083513099699846,  0.086465739747037,  0.088701897835694,  0.090203044370641,  0.090956740330261,  0.090956740330260,  0.090203044370641,  0.088701897835694,  0.086465739747037,  0.083513099699846,  0.079868444339771,  0.075561974660031,  0.070629375814256,  0.065111521554077,  0.059054135827525,  0.052507414572678,  0.045525611523354,  0.038166593796388,  0.030491380638443,  0.022563721985496,  0.014450162748595,  0.006229140555910};

static rl x35[35]={-0.997706569099600, -0.987935764443851, -0.970437616039230, -0.945345148207828, -0.912854261359317, -0.873219125025223, -0.826749899092225, -0.773810252286911, -0.714814501556629, -0.650224364665891, -0.580545344749764, -0.506322773241488, -0.428137541517814, -0.346601554430813, -0.262352941209296, -0.176051061165990, -0.088371343275659,  0.000000000000000,  0.088371343275659,  0.176051061165990,  0.262352941209296,  0.346601554430813,  0.428137541517814,  0.506322773241489,  0.580545344749765,  0.650224364665891,  0.714814501556628,  0.773810252286913,  0.826749899092227,  0.873219125025223,  0.912854261359319,  0.945345148207827,  0.970437616039232,  0.987935764443853,  0.997706569099601};
static rl w35[35]={ 0.005883433420438,  0.013650828348363,  0.021322979911487,  0.028829260108897,  0.036110115863462,  0.043108422326169,  0.049769370401355,  0.056040816212368,  0.061873671966082,  0.067222285269088,  0.072044794772559,  0.076303457155444,  0.079964942242324,  0.083000593728856,  0.085386653392100,  0.087104446997184,  0.088140530430276,  0.088486794907104,  0.088140530430276,  0.087104446997184,  0.085386653392099,  0.083000593728857,  0.079964942242324,  0.076303457155442,  0.072044794772559,  0.067222285269087,  0.061873671966080,  0.056040816212370,  0.049769370401353,  0.043108422326170,  0.036110115863464,  0.028829260108894,  0.021322979911484,  0.013650828348363,  0.005883433420443};

static rl x36[36]={-0.997830462484085, -0.988586478902212, -0.972027691049696, -0.948272984399507, -0.917497774515658, -0.879929800890396, -0.835847166992475, -0.785576230132207, -0.729489171593557, -0.668001236585522, -0.601567658135982, -0.530680285926246, -0.455863944433421, -0.377672547119690, -0.296684995344028, -0.213500892316866, -0.128736103809385, -0.043018198473709,  0.043018198473708,  0.128736103809384,  0.213500892316866,  0.296684995344028,  0.377672547119689,  0.455863944433420,  0.530680285926245,  0.601567658135982,  0.668001236585520,  0.729489171593557,  0.785576230132206,  0.835847166992474,  0.879929800890396,  0.917497774515658,  0.948272984399506,  0.972027691049696,  0.988586478902212,  0.997830462484086};
static rl w36[36]={ 0.005565719664246,  0.012915947284066,  0.020181515297734,  0.027298621498569,  0.034213810770306,  0.040875750923647,  0.047235083490264,  0.053244713977762,  0.058860144245326,  0.064039797355014,  0.068745323835737,  0.072941885005651,  0.076598410645871,  0.079687828912071,  0.082187266704340,  0.084078218979662,  0.085346685739339,  0.085983275670394,  0.085983275670394,  0.085346685739339,  0.084078218979662,  0.082187266704340,  0.079687828912072,  0.076598410645871,  0.072941885005652,  0.068745323835737,  0.064039797355016,  0.058860144245324,  0.053244713977761,  0.047235083490266,  0.040875750923645,  0.034213810770307,  0.027298621498568,  0.020181515297735,  0.012915947284067,  0.005565719664245};

static rl x37[37]={-0.997944582477915, -0.989185963214320, -0.973493030056486, -0.950972343262095, -0.921781437412462, -0.886124962155487, -0.844252987340556, -0.796459200509902, -0.743078833981965, -0.684486309130958, -0.621092608408923, -0.553342391861581, -0.481710877803206, -0.406700509318326, -0.328837429883707, -0.248667792791365, -0.166753930239852, -0.083670408954770,  0.000000000000000,  0.083670408954770,  0.166753930239853,  0.248667792791366,  0.328837429883706,  0.406700509318327,  0.481710877803206,  0.553342391861582,  0.621092608408925,  0.684486309130960,  0.743078833981965,  0.796459200509902,  0.844252987340555,  0.886124962155487,  0.921781437412465,  0.950972343262094,  0.973493030056485,  0.989185963214320,  0.997944582477915};
static rl w37[37]={ 0.005273057279500,  0.012238780100307,  0.019129044489082,  0.025886036990558,  0.032461639847522,  0.038809602501936,  0.044885364662442,  0.050646297654820,  0.056051987998274,  0.061064516523227,  0.065648722872751,  0.069772451555702,  0.073406777248488,  0.076526207570528,  0.079108861837529,  0.081136624508465,  0.082595272236438,  0.083474573625863,  0.083768360993139,  0.083474573625863,  0.082595272236437,  0.081136624508465,  0.079108861837529,  0.076526207570529,  0.073406777248489,  0.069772451555701,  0.065648722872751,  0.061064516523228,  0.056051987998276,  0.050646297654825,  0.044885364662436,  0.038809602501935,  0.032461639847523,  0.025886036990558,  0.019129044489084,  0.012238780100306,  0.005273057279500};

static rl x38[38]={-0.998049930535690, -0.989739454266386, -0.974846328590154, -0.953466330933531, -0.925741332048584, -0.891855739004632, -0.852035021932363, -0.806544167605317, -0.755685903753971, -0.699798680379185, -0.639254415829682, -0.574456021047806, -0.505834717927931, -0.433847169432376, -0.358972440479435, -0.281708809790166, -0.202570453892117, -0.122084025337867, -0.040785147904578,  0.040785147904578,  0.122084025337867,  0.202570453892117,  0.281708809790165,  0.358972440479435,  0.433847169432377,  0.505834717927931,  0.574456021047807,  0.639254415829682,  0.699798680379185,  0.755685903753971,  0.806544167605317,  0.852035021932362,  0.891855739004632,  0.925741332048583,  0.953466330933531,  0.974846328590155,  0.989739454266386,  0.998049930535689};
static rl w38[38]={ 0.005002880749642,  0.011613444716465,  0.018156577709613,  0.024579739738235,  0.030839500545172,  0.036894081594025,  0.042703158504675,  0.048228061860760,  0.053432019910332,  0.058280399146998,  0.062740933392133,  0.066783937979141,  0.070382507066898,  0.073512692584743,  0.076153663548447,  0.078287844658212,  0.079901033243529,  0.080982493770598,  0.081525029280386,  0.081525029280386,  0.080982493770597,  0.079901033243527,  0.078287844658210,  0.076153663548446,  0.073512692584744,  0.070382507066899,  0.066783937979141,  0.062740933392131,  0.058280399146997,  0.053432019910333,  0.048228061860759,  0.042703158504676,  0.036894081594024,  0.030839500545173,  0.024579739738233,  0.018156577709614,  0.011613444716467,  0.005002880749641};

static rl x39[39]={-0.998147383066434, -0.990251536854687, -0.976098709333472, -0.955775212324652, -0.929409148486740, -0.897167119292993, -0.859252937999908, -0.815906297430144, -0.767401242931065, -0.714044435894534, -0.656173213432011, -0.594153454957277, -0.528377268660438, -0.459260512309136, -0.387240163971561, -0.312771559248185, -0.236325512461835, -0.158385339997838, -0.079443804608756, -0.000000000000000,  0.079443804608756,  0.158385339997838,  0.236325512461836,  0.312771559248186,  0.387240163971562,  0.459260512309137,  0.528377268660438,  0.594153454957278,  0.656173213432011,  0.714044435894535,  0.767401242931064,  0.815906297430144,  0.859252937999906,  0.897167119292994,  0.929409148486740,  0.955775212324653,  0.976098709333471,  0.990251536854685,  0.998147383066433};
static rl w39[39]={ 0.004752944691636,  0.011034788939165,  0.017256229093726,  0.023369384832179,  0.029334955983901,  0.035115111498129,  0.040673276847937,  0.045974301108917,  0.050984665292129,  0.055672690340913,  0.060008736088596,  0.063965388138684,  0.067517630966232,  0.070643005970608,  0.073321753414270,  0.075536937322834,  0.077274552544683,  0.078523613287372,  0.079276222568369,  0.079527622139443,  0.079276222568368,  0.078523613287371,  0.077274552544683,  0.075536937322836,  0.073321753414269,  0.070643005970609,  0.067517630966232,  0.063965388138683,  0.060008736088596,  0.055672690340917,  0.050984665292130,  0.045974301108918,  0.040673276847933,  0.035115111498132,  0.029334955983903,  0.023369384832178,  0.017256229093723,  0.011034788939166,  0.004752944691634};

static rl x40[40]={-0.998237709710559, -0.990726238699458, -0.977259949983777, -0.957916819213793, -0.932812808278678, -0.902098806968875, -0.865959503212260, -0.824612230833311, -0.778305651426521, -0.727318255189928, -0.671956684614180, -0.612553889667982, -0.549467125095129, -0.483075801686179, -0.413779204371605, -0.341994090825758, -0.268152185007254, -0.192697580701371, -0.116084070675255, -0.038772417506051,  0.038772417506051,  0.116084070675256,  0.192697580701371,  0.268152185007254,  0.341994090825759,  0.413779204371605,  0.483075801686179,  0.549467125095129,  0.612553889667980,  0.671956684614180,  0.727318255189927,  0.778305651426521,  0.824612230833311,  0.865959503212259,  0.902098806968873,  0.932812808278677,  0.957916819213791,  0.977259949983772,  0.990726238699455,  0.998237709710559};
static rl w40[40]={ 0.004521277098532,  0.010498284531155,  0.016421058381911,  0.022245849194167,  0.027937006980023,  0.033460195282547,  0.038782167974472,  0.043870908185671,  0.048695807635073,  0.053227846983938,  0.057439769099392,  0.061306242492932,  0.064804013456599,  0.067912045815233,  0.070611647391285,  0.072886582395807,  0.074723169057969,  0.076110361900625,  0.077039818164248,  0.077505947978425,  0.077505947978425,  0.077039818164248,  0.076110361900626,  0.074723169057968,  0.072886582395805,  0.070611647391288,  0.067912045815234,  0.064804013456601,  0.061306242492928,  0.057439769099392,  0.053227846983938,  0.048695807635073,  0.043870908185673,  0.038782167974470,  0.033460195282547,  0.027937006980022,  0.022245849194170,  0.016421058381906,  0.010498284531152,  0.004521277098534};

static rl x41[41]={-0.998321588574770, -0.991167109699016, -0.978338673561083, -0.959906891730346, -0.935976987497853, -0.906685944758100, -0.872201511692441, -0.832721200401359, -0.788471145047409, -0.739704803069925, -0.686701502034951, -0.629764839072196, -0.569220941610216, -0.505416599199406, -0.438717277051407, -0.369505022640481, -0.298176277341825, -0.225139605633423, -0.150813354863992, -0.075623258989163, -0.000000000000000,  0.075623258989163,  0.150813354863993,  0.225139605633423,  0.298176277341826,  0.369505022640481,  0.438717277051406,  0.505416599199405,  0.569220941610215,  0.629764839072197,  0.686701502034951,  0.739704803069927,  0.788471145047411,  0.832721200401363,  0.872201511692441,  0.906685944758103,  0.935976987497855,  0.959906891730348,  0.978338673561085,  0.991167109699017,  0.998321588574772};
static rl w41[41]={ 0.004306140358169,  0.009999938773905,  0.015644938407818,  0.021201063368776,  0.026635899207111,  0.031918211731701,  0.037017716703509,  0.041905195195909,  0.046552648369015,  0.050933454294618,  0.055022519242580,  0.058796420949871,  0.062233542580967,  0.065314196453528,  0.068020736760876,  0.070337660620818,  0.072251696861024,  0.073751882027223,  0.074829623176222,  0.075478747092716,  0.075695535647298,  0.075478747092716,  0.074829623176222,  0.073751882027223,  0.072251696861023,  0.070337660620818,  0.068020736760877,  0.065314196453527,  0.062233542580966,  0.058796420949872,  0.055022519242580,  0.050933454294620,  0.046552648369015,  0.041905195195910,  0.037017716703508,  0.031918211731700,  0.026635899207111,  0.021201063368779,  0.015644938407818,  0.009999938773906,  0.004306140358166};

static rl x42[42]={-0.998399618990060, -0.991577288340858, -0.979342508063747, -0.961759365338203, -0.938923557354988, -0.910959724904126, -0.878020569812172, -0.840285983261817, -0.797962053255489, -0.751279935689480, -0.700494590556170, -0.645883388869247, -0.587744597485108, -0.526395749931193, -0.462171912070422, -0.395423852042975, -0.326516124465412, -0.255825079342879, -0.183736806564855, -0.110645027208520, -0.036948943165351,  0.036948943165352,  0.110645027208520,  0.183736806564855,  0.255825079342879,  0.326516124465411,  0.395423852042975,  0.462171912070422,  0.526395749931193,  0.587744597485109,  0.645883388869248,  0.700494590556171,  0.751279935689479,  0.797962053255488,  0.840285983261816,  0.878020569812174,  0.910959724904128,  0.938923557354987,  0.961759365338203,  0.979342508063746,  0.991577288340862,  0.998399618990063};
static rl w42[42]={ 0.004105998604649,  0.009536220301747,  0.014922443697357,  0.020227869569053,  0.025422959526115,  0.030479240699600,  0.035369071097594,  0.040065735180693,  0.044543577771968,  0.048778140792802,  0.052746295699173,  0.056426369358018,  0.059798262227588,  0.062843558045004,  0.065545624364908,  0.067889703376523,  0.069862992492594,  0.071454714265171,  0.072656175243805,  0.073460813453468,  0.073864234232173,  0.073864234232173,  0.073460813453468,  0.072656175243804,  0.071454714265172,  0.069862992492595,  0.067889703376521,  0.065545624364909,  0.062843558045003,  0.059798262227586,  0.056426369358019,  0.052746295699173,  0.048778140792801,  0.044543577771967,  0.040065735180691,  0.035369071097593,  0.030479240699604,  0.025422959526113,  0.020227869569050,  0.014922443697355,  0.009536220301750,  0.004105998604652};

static rl x43[43]={-0.998472332242508, -0.991959557593244, -0.980278220980255, -0.963486613014082, -0.941671956847638, -0.914947907206140, -0.883453765218617, -0.847353716209314, -0.806835964136939, -0.762111747194955, -0.713414235268956, -0.660997313751498, -0.605134259639603, -0.546116316660085, -0.484251176785735, -0.419861376029269, -0.353282612864304, -0.284861998032913, -0.214956244860518, -0.143929809510713, -0.072152990874587,  0.000000000000000,  0.072152990874587,  0.143929809510713,  0.214956244860518,  0.284861998032913,  0.353282612864303,  0.419861376029270,  0.484251176785734,  0.546116316660084,  0.605134259639601,  0.660997313751498,  0.713414235268955,  0.762111747194955,  0.806835964136938,  0.847353716209315,  0.883453765218618,  0.914947907206138,  0.941671956847637,  0.963486613014081,  0.980278220980256,  0.991959557593245,  0.998472332242508};
static rl w43[43]={ 0.003919490253841,  0.009103996637401,  0.014248756431579,  0.019319901423683,  0.024290456613841,  0.029134413261500,  0.033826492086858,  0.038342222194133,  0.042658057197981,  0.046751494754347,  0.050601192784389,  0.054187080318883,  0.057490461956910,  0.060494115249991,  0.063182380449397,  0.065541242126323,  0.067558402229365,  0.069223344193655,  0.070527387765085,  0.071463734252514,  0.072027501971421,  0.072215751693798,  0.072027501971422,  0.071463734252514,  0.070527387765085,  0.069223344193656,  0.067558402229366,  0.065541242126323,  0.063182380449397,  0.060494115249991,  0.057490461956910,  0.054187080318882,  0.050601192784390,  0.046751494754347,  0.042658057197982,  0.038342222194131,  0.033826492086860,  0.029134413261498,  0.024290456613840,  0.019319901423682,  0.014248756431576,  0.009103996637405,  0.003919490253842};

static rl x44[44]={-0.998540200636772, -0.992316392138515, -0.981151833077913, -0.965099650422492, -0.944239509118193, -0.918675259984174, -0.888534238286043, -0.853966595004711, -0.815144539645134, -0.772261479248756, -0.725531053660716, -0.675186070666121, -0.621477345903574, -0.564672453185470, -0.505054391388203, -0.442920174525412, -0.378579352014708, -0.312352466502786, -0.244569456928201, -0.175568014775517, -0.105691901708654, -0.035289236964136,  0.035289236964135,  0.105691901708653,  0.175568014775517,  0.244569456928202,  0.312352466502786,  0.378579352014706,  0.442920174525411,  0.505054391388202,  0.564672453185472,  0.621477345903577,  0.675186070666122,  0.725531053660718,  0.772261479248757,  0.815144539645134,  0.853966595004710,  0.888534238286044,  0.918675259984176,  0.944239509118194,  0.965099650422492,  0.981151833077913,  0.992316392138516,  0.998540200636771};
static rl w44[44]={ 0.003745404803112,  0.008700481367530,  0.013619586755576,  0.018471481736816,  0.023231481902018,  0.027875782821278,  0.032381222812069,  0.036725347813810,  0.040886512310349,  0.044843984081971,  0.048578046448351,  0.052070096091702,  0.055302735563728,  0.058259859877596,  0.060926736701560,  0.063290079733205,  0.065338114879182,  0.067060638906293,  0.068449070269367,  0.069496491861573,  0.070197685473559,  0.070549157789354,  0.070549157789354,  0.070197685473558,  0.069496491861571,  0.068449070269367,  0.067060638906294,  0.065338114879181,  0.063290079733204,  0.060926736701561,  0.058259859877595,  0.055302735563731,  0.052070096091704,  0.048578046448353,  0.044843984081972,  0.040886512310345,  0.036725347813809,  0.032381222812071,  0.027875782821282,  0.023231481902020,  0.018471481736813,  0.013619586755578,  0.008700481367527,  0.003745404803112};

static rl x45[45]={-0.998603645181938, -0.992649998447205, -0.981968715034541, -0.966608310396897, -0.946641690995629, -0.922163936719001, -0.893291671753242, -0.860162475960664, -0.822934220502087, -0.781784312593905, -0.736908848945489, -0.688521680771201, -0.636853394453223, -0.582150212569352, -0.524672820462914, -0.464695123919635, -0.402502943858541, -0.338392654250602, -0.272669769752378, -0.205647489783265, -0.137645205983253, -0.068986980163144,  0.000000000000000,  0.068986980163144,  0.137645205983254,  0.205647489783264,  0.272669769752378,  0.338392654250603,  0.402502943858542,  0.464695123919635,  0.524672820462916,  0.582150212569353,  0.636853394453224,  0.688521680771201,  0.736908848945490,  0.781784312593906,  0.822934220502087,  0.860162475960663,  0.893291671753242,  0.922163936719000,  0.946641690995629,  0.966608310396897,  0.981968715034541,  0.992649998447202,  0.998603645181937};
static rl w45[45]={ 0.003582663155283,  0.008323189296220,  0.013031104991584,  0.017677535257939,  0.022239847550577,  0.026696213967575,  0.031025374934515,  0.035206692201612,  0.039220236729303,  0.043046880709165,  0.046668387718372,  0.050067499237954,  0.053228016731267,  0.056134878759786,  0.058774232718841,  0.061133500831069,  0.063201440073819,  0.064968195750724,  0.066425348449843,  0.067565954163608,  0.068384577378668,  0.068877316977662,  0.069041824829232,  0.068877316977662,  0.068384577378669,  0.067565954163608,  0.066425348449843,  0.064968195750724,  0.063201440073819,  0.061133500831067,  0.058774232718842,  0.056134878759787,  0.053228016731268,  0.050067499237951,  0.046668387718374,  0.043046880709165,  0.039220236729300,  0.035206692201608,  0.031025374934513,  0.026696213967576,  0.022239847550579,  0.017677535257940,  0.013031104991581,  0.008323189296219,  0.003582663155286};

static rl x46[46]={-0.998663042133820, -0.992962348906175, -0.982733669804167, -0.968021391853994, -0.948892363446089, -0.925433798806754, -0.897752711533942, -0.865975394866857, -0.830246837066067, -0.790730057075274, -0.747605359615666, -0.701069512020407, -0.651334846201999, -0.598628289712715, -0.543190330261804, -0.485273918388165, -0.425143313282828, -0.363072877020996, -0.299345822701870, -0.234252922206270, -0.168091179467103, -0.101162475305584, -0.033772190016052,  0.033772190016052,  0.101162475305585,  0.168091179467103,  0.234252922206270,  0.299345822701870,  0.363072877020996,  0.425143313282828,  0.485273918388165,  0.543190330261802,  0.598628289712715,  0.651334846201998,  0.701069512020404,  0.747605359615666,  0.790730057075274,  0.830246837066066,  0.865975394866855,  0.897752711533943,  0.925433798806752,  0.948892363446090,  0.968021391853991,  0.982733669804166,  0.992962348906176,  0.998663042133820};
static rl w46[46]={ 0.003430300868110,  0.007969898229721,  0.012479883770988,  0.016933514007837,  0.021309998754140,  0.025589286397132,  0.029751829552205,  0.033778627999103,  0.037651305357387,  0.041352190109680,  0.044864395277318,  0.048171895101711,  0.051259598007143,  0.054113415385856,  0.056720325843992,  0.059068434595545,  0.061147027724650,  0.062946621064393,  0.064459003467139,  0.065677274267782,  0.066595874768454,  0.067210613600678,  0.067518685849037,  0.067518685849036,  0.067210613600678,  0.066595874768454,  0.065677274267781,  0.064459003467139,  0.062946621064395,  0.061147027724651,  0.059068434595545,  0.056720325843991,  0.054113415385856,  0.051259598007143,  0.048171895101712,  0.044864395277318,  0.041352190109680,  0.037651305357386,  0.033778627999103,  0.029751829552205,  0.025589286397129,  0.021309998754135,  0.016933514007836,  0.012479883770990,  0.007969898229723,  0.003430300868109};

static rl x47[47]={-0.998718728584211, -0.993255210987768, -0.983451003071622, -0.969346787326564, -0.951003969257708, -0.928502693012360, -0.901941329438525, -0.871436015796895, -0.837120139899901, -0.799143754167740, -0.757672918445438, -0.712888973409063, -0.664987747390332, -0.614178699956372, -0.560684005934664, -0.504737583863578, -0.446584073104856, -0.386477764084668, -0.324681486337736, -0.261465459214976, -0.197106110279112, -0.131884866554515, -0.066086923916356, -0.000000000000000,  0.066086923916356,  0.131884866554515,  0.197106110279112,  0.261465459214974,  0.324681486337735,  0.386477764084668,  0.446584073104855,  0.504737583863578,  0.560684005934664,  0.614178699956374,  0.664987747390332,  0.712888973409064,  0.757672918445439,  0.799143754167741,  0.837120139899902,  0.871436015796896,  0.901941329438525,  0.928502693012360,  0.951003969257706,  0.969346787326565,  0.983451003071625,  0.993255210987770,  0.998718728584215};
static rl w47[47]={ 0.003287453842529,  0.007638616295850,  0.011962848464313,  0.016235333146433,  0.020436938147668,  0.024549211659660,  0.028554150700641,  0.032434235515184,  0.036172496584177,  0.039752586122530,  0.043158848648479,  0.046376389086504,  0.049391137747361,  0.052189911780054,  0.054760472781532,  0.057091580293231,  0.059173040942338,  0.060995753008740,  0.062551746220921,  0.063834216605717,  0.064837556238946,  0.065557377766550,  0.065990533588810,  0.066135129623655,  0.065990533588810,  0.065557377766551,  0.064837556238945,  0.063834216605717,  0.062551746220922,  0.060995753008739,  0.059173040942338,  0.057091580293233,  0.054760472781530,  0.052189911780058,  0.049391137747360,  0.046376389086505,  0.043158848648479,  0.039752586122531,  0.036172496584174,  0.032434235515184,  0.028554150700645,  0.024549211659657,  0.020436938147669,  0.016235333146432,  0.011962848464311,  0.007638616295848,  0.003287453842532};

static rl x48[48]={-0.998771007252426, -0.993530172266351, -0.984124583722827, -0.970591592546248, -0.952987703160429, -0.931386690706554, -0.905879136715569, -0.876572020274247, -0.843588261624393, -0.807066204029442, -0.767159032515741, -0.724034130923815, -0.677872379632665, -0.628867396776514, -0.577224726083973, -0.523160974722233, -0.466902904750960, -0.408686481990717, -0.348755886292161, -0.287362487355455, -0.224763790394689, -0.161222356068892, -0.097004699209463, -0.032380170962869,  0.032380170962869,  0.097004699209463,  0.161222356068892,  0.224763790394688,  0.287362487355455,  0.348755886292161,  0.408686481990717,  0.466902904750959,  0.523160974722233,  0.577224726083974,  0.628867396776514,  0.677872379632664,  0.724034130923816,  0.767159032515741,  0.807066204029443,  0.843588261624394,  0.876572020274248,  0.905879136715571,  0.931386690706554,  0.952987703160430,  0.970591592546246,  0.984124583722827,  0.993530172266352,  0.998771007252426};
static rl w48[48]={ 0.003153346052305,  0.007327553901281,  0.011477234579230,  0.015579315722944,  0.019616160457354,  0.023570760839326,  0.027426509708357,  0.031167227832795,  0.034777222564774,  0.038241351065831,  0.041545082943464,  0.044674560856694,  0.047616658492491,  0.050359035553852,  0.052890189485196,  0.055199503699984,  0.057277292100404,  0.059114839698397,  0.060704439165894,  0.062039423159893,  0.063114192286254,  0.063924238584648,  0.064466164435950,  0.064737696812683,  0.064737696812685,  0.064466164435950,  0.063924238584649,  0.063114192286255,  0.062039423159892,  0.060704439165894,  0.059114839698396,  0.057277292100404,  0.055199503699984,  0.052890189485195,  0.050359035553855,  0.047616658492491,  0.044674560856696,  0.041545082943465,  0.038241351065831,  0.034777222564769,  0.031167227832799,  0.027426509708357,  0.023570760839322,  0.019616160457357,  0.015579315722944,  0.011477234579236,  0.007327553901278,  0.003153346052305};

static rl x49[49]={-0.998820150606636, -0.993788661944168, -0.984757895914213, -0.971762200901555, -0.954853658674137, -0.934100294755808, -0.909585655828073, -0.881408445573009, -0.849682119844165, -0.814534427359854, -0.776106894345447, -0.734554254237403, -0.690043824425132, -0.642754832419237, -0.592877694108901, -0.540613246991727, -0.486171941452493, -0.429772993341576, -0.371643501262284, -0.312017532119749, -0.251135178612578, -0.189241592461814, -0.126585997269672, -0.063420684982687, -0.000000000000000,  0.063420684982687,  0.126585997269672,  0.189241592461813,  0.251135178612576,  0.312017532119750,  0.371643501262285,  0.429772993341577,  0.486171941452493,  0.540613246991726,  0.592877694108901,  0.642754832419237,  0.690043824425131,  0.734554254237403,  0.776106894345447,  0.814534427359856,  0.849682119844166,  0.881408445573008,  0.909585655828073,  0.934100294755809,  0.954853658674135,  0.971762200901557,  0.984757895914212,  0.993788661944169,  0.998820150606636};
static rl w49[49]={ 0.003027278988926,  0.007035099590087,  0.011020551031594,  0.014962144935621,  0.018843595853084,  0.022649201587448,  0.026363618927068,  0.029971884620586,  0.033459466791619,  0.036812320963003,  0.040016945766370,  0.043060436981264,  0.045930539355597,  0.048615695887827,  0.051105094330144,  0.053388710708261,  0.055457349674804,  0.057302681530186,  0.058917275760026,  0.060294630953153,  0.061429200979194,  0.062316417320057,  0.062952707465196,  0.063335509296493,  0.063463281404791,  0.063335509296492,  0.062952707465196,  0.062316417320058,  0.061429200979193,  0.060294630953152,  0.058917275760027,  0.057302681530187,  0.055457349674804,  0.053388710708261,  0.051105094330144,  0.048615695887827,  0.045930539355596,  0.043060436981260,  0.040016945766374,  0.036812320963001,  0.033459466791623,  0.029971884620586,  0.026363618927065,  0.022649201587446,  0.018843595853089,  0.014962144935626,  0.011020551031593,  0.007035099590088,  0.003027278988921};

static rl x50[50]={-0.998866404420072, -0.994031969432092, -0.985354084048005, -0.972864385106690, -0.956610955242808, -0.936656618944878, -0.913078556655792, -0.885967979523613, -0.855429769429946, -0.821582070859337, -0.784555832900398, -0.744494302226068, -0.701552468706823, -0.655896465685439, -0.607702927184951, -0.557158304514651, -0.504458144907464, -0.449806334974039, -0.393414311897566, -0.335500245419437, -0.276288193779532, -0.216007236876042, -0.154890589998146, -0.093174701560086, -0.031098338327189,  0.031098338327189,  0.093174701560086,  0.154890589998146,  0.216007236876042,  0.276288193779532,  0.335500245419437,  0.393414311897566,  0.449806334974039,  0.504458144907465,  0.557158304514651,  0.607702927184949,  0.655896465685439,  0.701552468706822,  0.744494302226069,  0.784555832900399,  0.821582070859335,  0.855429769429946,  0.885967979523614,  0.913078556655791,  0.936656618944877,  0.956610955242808,  0.972864385106694,  0.985354084048006,  0.994031969432092,  0.998866404420072};
static rl w50[50]={ 0.002908622553156,  0.006759799195750,  0.010590548383649,  0.014380822761482,  0.018115560713489,  0.021780243170127,  0.025360673570009,  0.028842993580537,  0.032213728223580,  0.035459835615146,  0.038568756612585,  0.041528463090150,  0.044327504338800,  0.046955051303949,  0.049400938449467,  0.051655703069584,  0.053710621888994,  0.055557744806213,  0.057189925647729,  0.058600849813223,  0.059785058704265,  0.060737970841770,  0.061455899590317,  0.061936067420683,  0.062176616655347,  0.062176616655347,  0.061936067420683,  0.061455899590317,  0.060737970841771,  0.059785058704265,  0.058600849813223,  0.057189925647729,  0.055557744806213,  0.053710621888995,  0.051655703069583,  0.049400938449465,  0.046955051303949,  0.044327504338802,  0.041528463090148,  0.038568756612588,  0.035459835615147,  0.032213728223579,  0.028842993580534,  0.025360673570013,  0.021780243170124,  0.018115560713492,  0.014380822761487,  0.010590548383652,  0.006759799195743,  0.002908622553156};

// typedef struct {rl* x; rl* w;} table;

// static table lookuptable[]={
// static rl*** lookuptable={
//{ x1, w1},
//{ x2, w2},
//{ x3, w3},
//{ x4, w4},
//{ x5, w5},
//{ x6, w6},
//{ x7, w7},
//{ x8, w8},
//{ x9, w9},
//{ x10, w10},
//{ x11, w11},
//{ x12, w12},
//{ x13, w13},
//{ x14, w14},
//{ x15, w15},
//{ x16, w16},
//{ x17, w17},
//{ x18, w18},
//{ x19, w19},
//{ x20, w20},
//{ x21, w21},
//{ x22, w22},
//{ x23, w23},
//{ x24, w24},
//{ x25, w25},
//{ x26, w26},
//{ x27, w27},
//{ x28, w28},
//{ x29, w29},
//{ x30, w30},
//{ x31, w31},
//{ x32, w32},
//{ x33, w33},
//{ x34, w34},
//{ x35, w35},
//{ x36, w36},
//{ x37, w37},
//{ x38, w38},
//{ x39, w39},
//{ x40, w40},
//{ x41, w41},
//{ x42, w42},
//{ x43, w43},
//{ x44, w44},
//{ x45, w45},
//{ x46, w46},
//{ x47, w47},
//{ x48, w48},
//{ x49, w49},
//{ x50, w50}
//};

 static rl* xlookup[]={x1, x2, x3, x4, x5, x6, x7, x8, x9, x10, x11, x12, x13, x14, x15, x16, x17, x18, x19, x20, x21, x22, x23, x24, x25, x26, x27, x28, x29, x30, x31, x32, x33, x34, x35, x36, x37, x38, x39, x40, x41, x42, x43, x44, x45, x46, x47, x48, x49, x50};

 static rl* wlookup[]={w1, w2, w3, w4, w5, w6, w7, w8, w9, w10, w11, w12, w13, w14, w15, w16, w17, w18, w19, w20, w21, w22, w23, w24, w25, w26, w27, w28, w29, w30, w31, w32, w33, w34, w35, w36, w37, w38, w39, w40, w41, w42, w43, w44, w45, w46, w47, w48, w49, w50};

int nmax=50;
if((n>0) and (n<=nmax)){
  for(int i=0;i<n;i++){
    glx[i]=xlookup[n-1][i];
    glw[i]=wlookup[n-1][i];
 }
  return;
 }
 cout<< "n out of range in gl_table!! n="<<n<<"> nmax="<<nmax<<"\n";
}
